svm_type c_svc
kernel_type rbf
gamma 1
nr_class 5
total_sv 34
rho 0.36276 0.371906 0.473969 0.451522 0.137938 0.25699 0.231955 0.142067 0.0977635 -0.0295956
label 0 1 2 3 4
nr_sv 5 6 8 8 7
SV
2.107335316049639 0.732576868565294 0.7819447269800799 0.7736147721476789 1:0.114754 2:0.583333 3:0.676768 4:0.676768 5:0.547826 6:0.622222 7:0.655172 8:0.666667 9:0.52381 
0 0.1003888070674556 0.1095371855556466 0.1085783037267564 1:0.0983607 2:0.861111 3:0.959596 4:0.818182 5:0.617391 6:0.488889 7:0.689655 8:0.65 9:0.67619 
0.2964265104934171 0 0 0 1:0.0655738 2:0.819444 3:0.818182 4:0.272727 5:0.6 6:0.6 7:0.568966 8:0.75 9:0.942857 
0.2295626192109151 0.5958535967753404 0.6412513842416325 0.629383488716891 1:-0.0819672 2:1 3:0.959596 4:0.434343 5:0.513043 6:0.533333 7:0.534483 8:0.766667 9:1 
0.05271834980593445 0.3937788597496962 0.4244461486714203 0.4167085121221615 1:0.196721 2:0.694444 3:1 4:0.555556 5:0.46087 6:0.533333 7:0.551724 8:1 9:1 
-0 0.2591110144046342 0.2646118216882179 0.260659683970744 1:0.47541 2:0.0416667 3:0.212121 4:0.838384 5:0.878261 6:0.844444 7:0.327586 8:-0.533333 9:0.657143 
-1.736859881676639 0.8367291914326392 0.8944199942693069 0.8813026753556298 1:0.213115 2:0.194444 3:0.292929 4:0.515152 5:0.86087 6:0.688889 7:0.327586 8:0.55 9:0.333333 
-0 0.6725956776744122 0.581171811381979 0.542198226750192 2:-0.263889 3:0.636364 4:0.636364 5:0.756522 6:0.488889 7:0.310345 8:-0.45 9:0.580952 
-0 0.03482470347779317 0.01491533353693937 0.03873916724600095 1:0.180328 2:-0.166667 3:-0.0909091 4:0.515152 5:0.86087 6:0.488889 7:0.517241 8:-0.316667 9:0.714286 
-0.3689736056802617 0.7436913873588609 0.8116112072253026 0.8058610806097716 1:0.262295 2:0.472222 3:-0.232323 4:0.414141 5:0.86087 6:0.444444 7:0.293103 8:-0.566667 9:0.809524 
-0.580209308203005 0.09481529177328665 0.2223914172017729 0.2295852587515451 1:0.180328 2:0.138889 3:0.757576 4:0.818182 5:0.791304 6:0.488889 7:0.362069 8:-0.45 9:0.638095 
-0.1093331482812802 -0.2795322611114798 0 0.1677228201223715 1:0.0327869 2:-0.555556 3:-0.292929 4:0.555556 5:0.617391 6:0.466667 7:-0.551724 8:-0.216667 9:-0.180952 
-0.2916458132181204 -0.5077933408456813 0.8614699454524755 0.5573917025217557 1:-0.0327869 2:-0.569444 3:0.0707071 4:0.272727 5:0.478261 6:0.355556 7:-0.603448 8:-0.35 9:-0.142857 
-0.3582523908090453 -0.4876216582817534 0.7287595824479804 0.6785914797644198 1:-0.114754 2:-0.0277778 3:-0.79798 4:0.373737 5:0.513043 6:-0.266667 7:-0.517241 8:-0.883333 9:-0.828571 
-0.07469041930962894 -0.05530164919925538 0.114259993040315 0.1349397367869411 1:-0.0163934 2:-0.930556 3:-1 4:0.292929 5:0.443478 6:0.2 7:-0.775862 8:-0.566667 9:-0.104762 
-0 -0 0.01592139013398465 0 1:-0.327869 2:-0.847222 3:-0.313131 4:0.656566 5:0.530435 6:0.266667 7:-0.465517 8:-0.55 9:-0.0666667 
-0.4159890905458756 -0.5712516571134669 0.8852447089321018 0.7398007723265512 1:-0.0983607 2:-0.847222 3:-0.89899 4:-0.414141 5:0.391304 6:0.111111 7:-0.931034 8:-0.833333 9:-0.390476 
-0.3557046763627751 -0.4470083254077771 0.6316433502561769 0.6149817749924394 1:-0.196721 2:-0.875 3:-0.252525 4:1 5:0.582609 6:0.155556 7:-0.982759 8:-0.733333 9:-0.047619 
-0.2169825936310607 -0.2932583741622123 0.4442323857022434 0.3542761621387836 2:-0.472222 3:-0.858586 4:0.656566 5:0.408696 6:-0.422222 7:-1 8:-0.6 9:-0.714286 
-0.2392642548476636 -0.3387455342513581 -0.4354982715915861 0.4895181806153506 1:-0.836066 2:-0.625 3:-0.272727 4:-0.131313 5:-0.00869565 6:-0.955556 8:-0.2 9:-0.447619 
-0.3445824527086725 -0.4866186030476229 -0.567134806996659 0.6181825492132028 1:-0.52459 2:-0.361111 3:-0.171717 4:-1 5:-1 6:-0.933333 7:-0.689655 8:-0.45 9:0.0857143 
-0.04679384247420697 -0.06331807761542517 -0.03712121172034775 0.1174651559860139 1:-0.459016 2:-0.513889 3:-0.292929 4:-0.79798 5:-1 6:-0.777778 7:-0.448276 8:-0.233333 9:0.0666667 
-0.2528992036021554 -0.3572200832163284 -0.4872541821309158 0.4548917961099569 1:-0.819672 2:-0.263889 3:-0.212121 4:0.111111 5:-0.513043 6:-0.355556 7:-0.689655 8:0.116667 9:-0.295238 
-0.08260696393925036 -0.1150603039022681 -0.04596503618660204 0.138596628081939 1:-0.918033 2:-0.944444 3:-0.414141 4:-0.69697 5:-0.217391 6:-1 7:-0.534483 8:-0.516667 9:-0.561905 
-0.2514909283334567 -0.3551621174144381 -0.5834549771827471 0.459624866262384 1:-1 2:-1 3:-0.79798 4:-0.454545 5:-0.321739 6:-0.622222 7:-0.62069 8:-0.383333 9:-0.447619 
-0.3704326345542678 -0.5216665302776792 -0.77770699261461 0.7024049091483534 1:-0.459016 2:-0.222222 3:0.252525 4:-0.313131 5:-0.2 6:-0.422222 7:-0.896552 8:-0.65 9:-1 
-0.3691091649891058 -0.5513303355783986 -0.74739587754181 0.6939734027006816 1:-0.557377 2:-0.402778 3:0.373737 4:-0.353535 5:0.0608696 6:-0.444444 7:-0.551724 8:-0.5 9:0.466667 
-0.2609971730793799 -0.3612923799202565 -0.4718212422210239 -0.5030685606396823 1:0.508197 2:-0.583333 3:-0.515152 4:-0.636364 5:0.408696 6:-0.0888889 7:0.793103 8:-0.5 9:-0.67619 
-0.305120280187051 -0.4267604336201976 -0.49409104193335 -0.5689412376525855 1:0.622951 2:0.583333 3:-0.030303 4:-0.292929 5:-0.026087 6:0.866667 7:0.706897 8:-0.916667 9:-0.771429 
-0.4167423330825637 -0.5892315361207794 -0.6779610865489653 -0.781744048817286 1:1 2:0.291667 3:-0.0909091 4:-0.717172 5:1 6:1 7:0.62069 8:-0.966667 9:-0.6 
-0.3247568076031748 -0.4674475858561067 -0.5501105710174045 -0.6412001921857983 1:0.278689 2:0.180556 3:0.030303 4:-0.373737 5:0.356522 6:-0.577778 7:0.862069 8:-0.7 9:-0.619048 
-0.07072757842565172 -0.1339487879724862 -0.1585034756488196 -0.1335534626920177 1:0.491803 2:-0.152778 3:0.171717 4:-0.59596 5:0.234783 6:0.733333 7:0.482759 8:-0.883333 9:-0.542857 
-0.2186734764276658 -0.3144727144169245 -0.3335835977669282 -0.3898721885837931 1:0.622951 2:0.138889 3:-0.212121 4:-0.555556 5:0.0956522 6:0.222222 7:1 8:-0.05 9:-0.657143 
-0.3312674279080011 -0.4651926547771326 -0.561633433516771 -0.6562777975467192 1:0.540984 2:-0.277778 3:-0.212121 4:-0.515152 5:-0.46087 6:0.0444444 7:0.568966 8:-1 9:-0.2 
