svm_type c_svc
kernel_type linear
nr_class 5
total_sv 27
rho 1.06877 0.342367 0.271674 0.213677 0.266449 0.0492231 -0.0669559 -0.0928679 -0.121012 -0.0884864
label 0 1 2 3 4
nr_sv 4 5 5 6 7
SV
1 0.4038454100020114 0.2984824651311233 0.3953786137021565 1:0.114754 2:0.583333 3:0.676768 4:0.676768 5:0.547826 6:0.622222 7:0.655172 8:0.666667 9:0.52381 
0.4595338242000765 0 0 0 1:0.0983607 2:0.791667 3:0.79798 4:0.717172 5:0.6 6:0.555556 7:0.741379 8:0.716667 9:0.790476 
0.09042252171083272 0 0 0 1:0.0983607 2:0.861111 3:0.959596 4:0.818182 5:0.617391 6:0.488889 7:0.689655 8:0.65 9:0.67619 
0.1409934987286733 0 0.004575003591770739 0 1:0.0655738 2:0.819444 3:0.818182 4:0.272727 5:0.6 6:0.6 7:0.568966 8:0.75 9:0.942857 
-1 0.155522919475877 0 0.006975830730241244 1:0.213115 2:0.194444 3:0.292929 4:0.515152 5:0.86087 6:0.688889 7:0.327586 8:0.55 9:0.333333 
-0 0.495803341431051 0.2535540469784882 0 2:-0.263889 3:0.636364 4:0.636364 5:0.756522 6:0.488889 7:0.310345 8:-0.45 9:0.580952 
-0 0.4103022248912957 0.3513327743977417 0.6426082815307304 1:0.131148 2:0.0555556 3:0.0707071 4:0.353535 5:0.86087 6:0.377778 7:0.327586 8:-0.45 9:0.657143 
-0 0 0 0.09507369987874643 1:0.262295 2:0.472222 3:-0.232323 4:0.414141 5:0.86087 6:0.444444 7:0.293103 8:-0.566667 9:0.809524 
-0.6909498446395825 0 0 0 1:0.180328 2:0.138889 3:0.757576 4:0.818182 5:0.791304 6:0.488889 7:0.362069 8:-0.45 9:0.638095 
-0.2015992786081303 -0.2363907409795529 0 0 1:0.0327869 2:-0.555556 3:-0.292929 4:0.555556 5:0.617391 6:0.466667 7:-0.551724 8:-0.216667 9:-0.180952 
-0.202246131393881 -0.8252377448186706 0.6731601105465157 0.1250702524419036 1:-0.0327869 2:-0.569444 3:0.0707071 4:0.272727 5:0.478261 6:0.355556 7:-0.603448 8:-0.35 9:-0.142857 
-0 -0 0.2091048705441852 0 1:-0.114754 2:-0.0277778 3:-0.79798 4:0.373737 5:0.513043 6:-0.266667 7:-0.517241 8:-0.883333 9:-0.828571 
-0 -0 0 0.6666791314585784 1:0.147541 2:-0.541667 3:-0.717172 4:0.313131 5:0.46087 6:0.111111 7:-0.482759 8:-0.583333 9:-0.638095 
-0 -0 0.4839038273863283 0 1:-0.0983607 2:-0.847222 3:-0.89899 4:-0.414141 5:0.391304 6:0.111111 7:-0.931034 8:-0.833333 9:-0.390476 
-0 -0 -0 0.3402761989129244 1:-0.836066 2:-0.625 3:-0.272727 4:-0.131313 5:-0.00869565 6:-0.955556 8:-0.2 9:-0.447619 
-0 -0 -0 0.008464052645961149 1:-0.459016 2:-0.513889 3:-0.292929 4:-0.79798 5:-1 6:-0.777778 7:-0.448276 8:-0.233333 9:0.0666667 
-0.08905226987839665 -0 -0 0 1:-0.819672 2:-0.263889 3:-0.212121 4:0.111111 5:-0.513043 6:-0.355556 7:-0.689655 8:0.116667 9:-0.295238 
-0 -0 -0.3086904450467835 0 1:-1 2:-1 3:-0.79798 4:-0.454545 5:-0.321739 6:-0.622222 7:-0.62069 8:-0.383333 9:-0.447619 
-0 -0 -0.5416113500373424 0.1701505855375848 1:-0.459016 2:-0.222222 3:0.252525 4:-0.313131 5:-0.2 6:-0.422222 7:-0.896552 8:-0.65 9:-1 
-0.2140051988444974 -0.60488682137623 -0.5158670133929035 0.162213004180823 1:-0.557377 2:-0.402778 3:0.373737 4:-0.353535 5:0.0608696 6:-0.444444 7:-0.551724 8:-0.5 9:0.466667 
-0 -0 -0.4099632938523962 -0.008755626905906141 1:0.508197 2:-0.583333 3:-0.515152 4:-0.636364 5:0.408696 6:-0.0888889 7:0.793103 8:-0.5 9:-0.67619 
-0.1425526046921795 -0.6805762878534299 -0 -0 1:0.57377 2:0.319444 3:-0.252525 4:-0.515152 5:0.373913 6:0.422222 7:0.603448 8:-0.666667 9:-0.447619 
-0 -0.06408152428628813 -0 -0.4191847453003477 1:0.278689 2:0.180556 3:0.030303 4:-0.373737 5:0.356522 6:-0.577778 7:0.862069 8:-0.7 9:-0.619048 
-0 -0 -0.2007878123503963 -0 1:0.52459 2:0.305556 3:-0.0505051 4:-0.515152 5:0.478261 6:0.422222 7:0.517241 8:-0.833333 9:-0.695238 
-0 -0 -0.09200441074763471 -0 1:0.491803 2:-0.152778 3:0.171717 4:-0.59596 5:0.234783 6:0.733333 7:0.482759 8:-0.883333 9:-0.542857 
-0.2528260090099769 -0 -0 -0 1:0.622951 2:0.138889 3:-0.212121 4:-0.555556 5:0.0956522 6:0.222222 7:1 8:-0.05 9:-0.657143 
-0 -0 -0.08899386695005505 -0.2531634690710395 1:0.540984 2:-0.277778 3:-0.212121 4:-0.515152 5:-0.46087 6:0.0444444 7:0.568966 8:-1 9:-0.2 
