svm_type c_svc
kernel_type sigmoid
gamma 0.111111
coef0 0
nr_class 5
total_sv 44
rho 0.660523 0.247178 0.19397 0.256064 -0.0561636 0.0215861 -0.0917099 0.0323295 0.0241942 -0.0793826
label 0 1 2 3 4
nr_sv 8 9 9 8 10
SV
1 1 1 1 1:0.114754 2:0.583333 3:0.676768 4:0.676768 5:0.547826 6:0.622222 7:0.655172 8:0.666667 9:0.52381 
1 0.3801888895120982 0 0.9727535880815427 1:0.0983607 2:0.791667 3:0.79798 4:0.717172 5:0.6 6:0.555556 7:0.741379 8:0.716667 9:0.790476 
1 0 0 0 1:0.0983607 2:0.861111 3:0.959596 4:0.818182 5:0.617391 6:0.488889 7:0.689655 8:0.65 9:0.67619 
0.5908915908032174 0 0 0 1:0.0819672 2:0.805556 3:1 4:0.494949 5:0.478261 6:0.511111 7:0.62069 8:0.816667 9:1 
1 0 0 0 1:0.147541 2:0.902778 3:0.919192 4:0.515152 5:0.617391 6:0.511111 7:0.603448 8:0.766667 9:0.92381 
1 0.3180633214857793 1 1 1:0.0655738 2:0.819444 3:0.818182 4:0.272727 5:0.6 6:0.6 7:0.568966 8:0.75 9:0.942857 
1 1 0.3133207468729625 0 1:0.0819672 2:0.75 3:0.919192 4:0.59596 5:0.513043 6:0.555556 7:0.517241 8:0.766667 9:0.885714 
1 0 0 0 1:0.213115 2:0.847222 3:0.919192 4:0.616162 5:0.46087 6:0.711111 7:0.431034 8:0.85 9:0.980952 
-1 0 0 0 1:0.42623 2:0.0972222 3:0.353535 4:0.959596 5:0.773913 6:0.688889 7:0.362069 8:-0.483333 9:0.638095 
-1 0.4382504803351162 0.4395151718971399 0.6513823177726588 1:0.213115 2:0.194444 3:0.292929 4:0.515152 5:0.86087 6:0.688889 7:0.327586 8:0.55 9:0.333333 
-1 1 0.7714643387169527 0 1:0.0327869 2:-0.111111 3:0.616162 4:0.757576 5:0.791304 6:0.488889 7:0.310345 8:-0.5 9:0.561905 
-1 1 1 0.6769957431113649 2:-0.263889 3:0.636364 4:0.636364 5:0.756522 6:0.488889 7:0.310345 8:-0.45 9:0.580952 
-0.5908915908032173 1 1 1 1:0.131148 2:0.0555556 3:0.0707071 4:0.353535 5:0.86087 6:0.377778 7:0.327586 8:-0.45 9:0.657143 
-1 1 0 1 1:0.311475 2:0.194444 3:0.272727 4:0.575758 5:0.913043 6:0.844444 7:0.0862069 8:-0.4 9:0.6 
-0 1 0.1714104528089549 1 1:0.180328 2:-0.166667 3:-0.0909091 4:0.515152 5:0.86087 6:0.488889 7:0.517241 8:-0.316667 9:0.714286 
-1 0.4014894348441783 0 1 1:0.262295 2:0.472222 3:-0.232323 4:0.414141 5:0.86087 6:0.444444 7:0.293103 8:-0.566667 9:0.809524 
-1 0 0 0 1:0.180328 2:0.138889 3:0.757576 4:0.818182 5:0.791304 6:0.488889 7:0.362069 8:-0.45 9:0.638095 
-1 -1 0 1 1:0.0327869 2:-0.555556 3:-0.292929 4:0.555556 5:0.617391 6:0.466667 7:-0.551724 8:-0.216667 9:-0.180952 
-1 -1 1 1 1:-0.0327869 2:-0.569444 3:0.0707071 4:0.272727 5:0.478261 6:0.355556 7:-0.603448 8:-0.35 9:-0.142857 
-0 -0 1 1 1:-0.114754 2:-0.0277778 3:-0.79798 4:0.373737 5:0.513043 6:-0.266667 7:-0.517241 8:-0.883333 9:-0.828571 
-0 -0.8397399151792945 1 1 1:0.147541 2:-0.541667 3:-0.717172 4:0.313131 5:0.46087 6:0.111111 7:-0.482759 8:-0.583333 9:-0.638095 
-0 -1 1 0.3616923704127539 1:-0.229508 2:-0.916667 3:-0.676768 4:0.212121 5:0.530435 6:0.444444 7:-0.637931 8:-0.583333 9:-0.0666667 
-0.6982522109978776 -1 1 0 1:-0.327869 2:-0.847222 3:-0.313131 4:0.656566 5:0.530435 6:0.266667 7:-0.465517 8:-0.55 9:-0.0666667 
-0 -0 1 1 1:-0.0983607 2:-0.847222 3:-0.89899 4:-0.414141 5:0.391304 6:0.111111 7:-0.931034 8:-0.833333 9:-0.390476 
-0 -1 0 0 1:-0.196721 2:-0.875 3:-0.252525 4:1 5:0.582609 6:0.155556 7:-0.982759 8:-0.733333 9:-0.047619 
-0 -0 1 0 2:-0.472222 3:-0.858586 4:0.656566 5:0.408696 6:-0.422222 7:-1 8:-0.6 9:-0.714286 
-0 -0 -1 1 1:-0.885246 2:-0.638889 3:-0.474747 4:-0.353535 5:-0.252174 6:-0.933333 7:-0.137931 8:-0.45 9:-0.542857 
-0.3133207468729625 -1 -1 1 1:-0.836066 2:-0.625 3:-0.272727 4:-0.131313 5:-0.00869565 6:-0.955556 8:-0.2 9:-0.447619 
-0 -0 -0 0.7352540059550801 1:-0.459016 2:-0.513889 3:-0.292929 4:-0.79798 5:-1 6:-0.777778 7:-0.448276 8:-0.233333 9:0.0666667 
-0 -0 -1 0 1:-0.918033 2:-0.513889 3:-0.373737 4:-0.292929 5:-0.321739 6:-0.466667 7:-0.517241 8:0.166667 9:-0.504762 
-1 -1 -1 0 1:-0.819672 2:-0.263889 3:-0.212121 4:0.111111 5:-0.513043 6:-0.355556 7:-0.689655 8:0.116667 9:-0.295238 
-0 -0 -1 0 1:-1 2:-1 3:-0.79798 4:-0.454545 5:-0.321739 6:-0.622222 7:-0.62069 8:-0.383333 9:-0.447619 
-0 -0.3823899634230476 -1 1 1:-0.459016 2:-0.222222 3:0.252525 4:-0.313131 5:-0.2 6:-0.422222 7:-0.896552 8:-0.65 9:-1 
-1 -1 -1 1 1:-0.557377 2:-0.402778 3:0.373737 4:-0.353535 5:0.0608696 6:-0.444444 7:-0.551724 8:-0.5 9:0.466667 
-0 -0 -1 -1 1:0.508197 2:-0.583333 3:-0.515152 4:-0.636364 5:0.408696 6:-0.0888889 7:0.793103 8:-0.5 9:-0.67619 
-0.4566853256751703 -0 -0 -0 1:0.622951 2:0.583333 3:-0.030303 4:-0.292929 5:-0.026087 6:0.866667 7:0.706897 8:-0.916667 9:-0.771429 
-0 -1 -0 -0 1:1 2:0.291667 3:-0.0909091 4:-0.717172 5:1 6:1 7:0.62069 8:-0.966667 9:-0.6 
-1 -1 -1 -0 1:0.57377 2:0.319444 3:-0.252525 4:-0.515152 5:0.373913 6:0.422222 7:0.603448 8:-0.666667 9:-0.447619 
-0.5160682624063724 -1 -0.3616923704127539 -1 1:0.278689 2:0.180556 3:0.030303 4:-0.373737 5:0.356522 6:-0.577778 7:0.862069 8:-0.7 9:-0.619048 
-0 -0 -0 -1 1:0.459016 2:-0.0972222 3:-0.232323 4:-0.757576 5:-0.113043 6:0.0666667 7:0.965517 8:-0.416667 9:-0.352381 
-0 -1 -1 -0 1:0.52459 2:0.305556 3:-0.0505051 4:-0.515152 5:0.478261 6:0.422222 7:0.517241 8:-0.833333 9:-0.695238 
-0 -1 -1 -0.7352540059550802 1:0.491803 2:-0.152778 3:0.171717 4:-0.59596 5:0.234783 6:0.733333 7:0.482759 8:-0.883333 9:-0.542857 
-1 -0 -0 -0 1:0.622951 2:0.138889 3:-0.212121 4:-0.555556 5:0.0956522 6:0.222222 7:1 8:-0.05 9:-0.657143 
-0 -0.3283780608840236 -1 -1 1:0.540984 2:-0.277778 3:-0.212121 4:-0.515152 5:-0.46087 6:0.0444444 7:0.568966 8:-1 9:-0.2 
